,0
0,"[[-0.22760498  0.31458461 -0.13510299  0.2528281   0.59646073  0.21244772
  -0.12215111]
 [-0.37431425  0.59344446  0.28546513  0.29879482  0.10722148  0.18691359
   0.18525994]
 [-0.22610914  0.17726845  0.02138353 -0.01847713 -0.06708698  0.012574
  -0.1106663 ]
 [-0.07785239  0.19194232 -0.3514783  -0.44176801  0.43027018  0.35053215
   0.18330339]
 [-0.1762136   0.31295582 -0.23086275  0.26424654 -0.22881421  0.38243338
   0.29693553]
 [ 0.65297193  0.38664415 -0.33521139 -0.08725997 -0.15559798  0.29699112
  -0.07200907]
 [-0.09024801  0.36575042  0.15219716  0.07739627  0.46778719 -0.21678589
  -0.36959923]
 [ 0.26301277  0.1634922  -0.26725775  0.52219399  0.59874323  0.3183446
   0.2927028 ]
 [ 0.04308157  0.33169945 -0.38121471 -0.33896804 -0.30175277 -0.27752349
   0.26634515]
 [-0.14835963  0.03233098 -0.08015023 -0.25974818  0.01156404 -0.35987765
   0.33471434]
 [-0.15542339  0.36037942 -0.45853911 -0.05801278  0.54029677 -0.22705409
  -0.24738074]
 [ 0.10194125  0.25392673  0.64960721 -0.25484936 -0.13384545  0.19991724
   0.19371705]
 [-0.17206154  0.12084881 -0.08185915 -0.14899403  0.65481105  0.43563029
  -0.45572327]
 [ 0.22171746  0.14132561 -0.44000602  0.02186829  0.64864491  0.27661851
  -0.13097703]
 [ 0.22198596  0.1468309  -0.05322638 -0.22598425  0.38722402 -0.20667457
  -0.28932689]
 [ 0.30900724 -0.12451864  0.31165107 -0.65100749 -0.34795102 -0.05967764
  -0.07719534]
 [-0.27812649 -0.1202617  -0.33966547  0.17107732  0.14848843 -0.29555296
  -0.09624301]
 [-0.22508801  0.28389103  0.4216903  -0.14276254  0.38641867  0.16803485
   0.12454887]
 [ 0.09866361  0.01075364  0.02095807 -0.55516825 -0.44201541 -0.1972592
   0.00640031]
 [-0.23514329 -0.42482255  0.34629898 -0.64194141 -0.04957908  0.10450536
   0.44238036]
 [-0.16357527  0.53618154  0.01979584  0.56075637  0.29812335 -0.22035887
  -0.56543822]
 [-0.22333477  0.24366914  0.07404369  0.53655626  0.56741447  0.35327307
  -0.30663665]
 [-0.18698663 -0.03730178 -0.45136368  0.08623818  0.33667871  0.09968607
  -0.53634527]
 [-0.33432142  0.15663009  0.21083125  0.30747282  0.42937857 -0.14374657
  -0.24835001]
 [ 0.33173331  0.6145685  -0.10283864  0.21331928  0.22482518 -0.00751202
   0.197861  ]
 [-0.17517903  0.02734682  0.38461334 -0.12955893 -0.03121353  0.110999
   0.03799291]
 [-0.21535746  0.06198485 -0.04393026  0.2897808   0.22548443  0.52556796
  -0.72831318]
 [-0.37418122  0.40050986 -0.04912084  0.36118383  0.08170399  0.0201432
  -0.26353399]
 [-0.21505522  0.52974905  0.08846468  0.60212149  0.30284817 -0.31810284
  -0.33743759]
 [-0.40451066 -0.24148976  0.11142054  0.3668926  -0.07049711  0.31158399
  -0.24415334]]"
1,"[[-0.60179938 -0.91727426]
 [ 1.36635254  0.60266095]
 [-0.22053358 -0.66650324]
 [ 1.0482846   0.43101039]
 [ 0.72133938  0.38481431]
 [-0.22241497  0.76016462]
 [-0.92457825 -0.36285906]]"
2,"[[-3.2411065 ]
 [-1.24543737]]"
